digraph Tree {
node [shape=box, style="filled, rounded", color="black", fontname=helvetica] ;
edge [fontname=helvetica] ;
0 [label="perimeter <= 56.72\ngini = 0.54\nsamples = 217\nvalue = [67, 60, 215]\nclass = Residential", fillcolor="#bb94f1"] ;
1 [label="fractal_dimensions <= 3.13\ngini = 0.38\nsamples = 153\nvalue = [28, 28, 189]\nclass = Residential", fillcolor="#a26cec"] ;
0 -> 1 [labeldistance=2.5, labelangle=45, headlabel="True"] ;
2 [label="perimeter <= 38.09\ngini = 0.33\nsamples = 138\nvalue = [25, 18, 180]\nclass = Residential", fillcolor="#9c64eb"] ;
1 -> 2 ;
3 [label="area <= 84.34\ngini = 0.47\nsamples = 35\nvalue = [5, 17, 48]\nclass = Residential", fillcolor="#b58bf0"] ;
2 -> 3 ;
4 [label="fractal_dimensions <= 2.38\ngini = 0.36\nsamples = 30\nvalue = [3, 10, 47]\nclass = Residential", fillcolor="#a26cec"] ;
3 -> 4 ;
5 [label="pnt_count <= 12.5\ngini = 0.28\nsamples = 28\nvalue = [3, 6, 47]\nclass = Residential", fillcolor="#985dea"] ;
4 -> 5 ;
6 [label="perimeter <= 37.14\ngini = 0.23\nsamples = 27\nvalue = [3, 4, 47]\nclass = Residential", fillcolor="#9355e9"] ;
5 -> 6 ;
7 [label="gini = 0.21\nsamples = 26\nvalue = [2, 4, 47]\nclass = Residential", fillcolor="#9051e8"] ;
6 -> 7 ;
8 [label="gini = 0.0\nsamples = 1\nvalue = [1, 0, 0]\nclass = Commercial", fillcolor="#e58139"] ;
6 -> 8 ;
9 [label="gini = 0.0\nsamples = 1\nvalue = [0, 2, 0]\nclass = Industrial", fillcolor="#39e581"] ;
5 -> 9 ;
10 [label="gini = 0.0\nsamples = 2\nvalue = [0, 4, 0]\nclass = Industrial", fillcolor="#39e581"] ;
4 -> 10 ;
11 [label="area <= 85.23\ngini = 0.46\nsamples = 5\nvalue = [2, 7, 1]\nclass = Industrial", fillcolor="#83efb0"] ;
3 -> 11 ;
12 [label="gini = 0.0\nsamples = 1\nvalue = [2, 0, 0]\nclass = Commercial", fillcolor="#e58139"] ;
11 -> 12 ;
13 [label="perimeter <= 37.65\ngini = 0.22\nsamples = 4\nvalue = [0, 7, 1]\nclass = Industrial", fillcolor="#55e993"] ;
11 -> 13 ;
14 [label="gini = 0.0\nsamples = 2\nvalue = [0, 4, 0]\nclass = Industrial", fillcolor="#39e581"] ;
13 -> 14 ;
15 [label="area <= 89.14\ngini = 0.38\nsamples = 2\nvalue = [0, 3, 1]\nclass = Industrial", fillcolor="#7beeab"] ;
13 -> 15 ;
16 [label="gini = 0.0\nsamples = 1\nvalue = [0, 0, 1]\nclass = Residential", fillcolor="#8139e5"] ;
15 -> 16 ;
17 [label="gini = 0.0\nsamples = 1\nvalue = [0, 3, 0]\nclass = Industrial", fillcolor="#39e581"] ;
15 -> 17 ;
18 [label="fractal_dimensions <= 2.75\ngini = 0.24\nsamples = 103\nvalue = [20, 1, 132]\nclass = Residential", fillcolor="#9558e9"] ;
2 -> 18 ;
19 [label="perimeter <= 41.59\ngini = 0.16\nsamples = 50\nvalue = [5, 1, 64]\nclass = Residential", fillcolor="#8d4be7"] ;
18 -> 19 ;
20 [label="perimeter <= 40.87\ngini = 0.27\nsamples = 17\nvalue = [4, 0, 21]\nclass = Residential", fillcolor="#995fea"] ;
19 -> 20 ;
21 [label="fractal_dimensions <= 2.38\ngini = 0.09\nsamples = 14\nvalue = [1, 0, 20]\nclass = Residential", fillcolor="#8743e6"] ;
20 -> 21 ;
22 [label="gini = 0.32\nsamples = 4\nvalue = [1, 0, 4]\nclass = Residential", fillcolor="#a06aec"] ;
21 -> 22 ;
23 [label="gini = 0.0\nsamples = 10\nvalue = [0, 0, 16]\nclass = Residential", fillcolor="#8139e5"] ;
21 -> 23 ;
24 [label="perimeter <= 41.1\ngini = 0.38\nsamples = 3\nvalue = [3, 0, 1]\nclass = Commercial", fillcolor="#eeab7b"] ;
20 -> 24 ;
25 [label="gini = 0.0\nsamples = 1\nvalue = [2, 0, 0]\nclass = Commercial", fillcolor="#e58139"] ;
24 -> 25 ;
26 [label="gini = 0.5\nsamples = 2\nvalue = [1, 0, 1]\nclass = Commercial", fillcolor="#ffffff"] ;
24 -> 26 ;
27 [label="pnt_count <= 8.0\ngini = 0.09\nsamples = 33\nvalue = [1, 1, 43]\nclass = Residential", fillcolor="#8742e6"] ;
19 -> 27 ;
28 [label="perimeter <= 44.42\ngini = 0.05\nsamples = 30\nvalue = [0, 1, 41]\nclass = Residential", fillcolor="#843ee6"] ;
27 -> 28 ;
29 [label="gini = 0.09\nsamples = 14\nvalue = [0, 1, 19]\nclass = Residential", fillcolor="#8843e6"] ;
28 -> 29 ;
30 [label="gini = 0.0\nsamples = 16\nvalue = [0, 0, 22]\nclass = Residential", fillcolor="#8139e5"] ;
28 -> 30 ;
31 [label="perimeter <= 48.68\ngini = 0.44\nsamples = 3\nvalue = [1, 0, 2]\nclass = Residential", fillcolor="#c09cf2"] ;
27 -> 31 ;
32 [label="gini = 0.0\nsamples = 1\nvalue = [0, 0, 1]\nclass = Residential", fillcolor="#8139e5"] ;
31 -> 32 ;
33 [label="gini = 0.5\nsamples = 2\nvalue = [1, 0, 1]\nclass = Commercial", fillcolor="#ffffff"] ;
31 -> 33 ;
34 [label="fractal_dimensions <= 2.76\ngini = 0.3\nsamples = 53\nvalue = [15, 0, 68]\nclass = Residential", fillcolor="#9d65eb"] ;
18 -> 34 ;
35 [label="gini = 0.0\nsamples = 1\nvalue = [5, 0, 0]\nclass = Commercial", fillcolor="#e58139"] ;
34 -> 35 ;
36 [label="perimeter <= 51.51\ngini = 0.22\nsamples = 52\nvalue = [10, 0, 68]\nclass = Residential", fillcolor="#9456e9"] ;
34 -> 36 ;
37 [label="fractal_dimensions <= 2.84\ngini = 0.1\nsamples = 39\nvalue = [3, 0, 52]\nclass = Residential", fillcolor="#8844e6"] ;
36 -> 37 ;
38 [label="gini = 0.28\nsamples = 13\nvalue = [3, 0, 15]\nclass = Residential", fillcolor="#9a61ea"] ;
37 -> 38 ;
39 [label="gini = 0.0\nsamples = 26\nvalue = [0, 0, 37]\nclass = Residential", fillcolor="#8139e5"] ;
37 -> 39 ;
40 [label="perimeter <= 51.69\ngini = 0.42\nsamples = 13\nvalue = [7, 0, 16]\nclass = Residential", fillcolor="#b890f0"] ;
36 -> 40 ;
41 [label="gini = 0.0\nsamples = 1\nvalue = [3, 0, 0]\nclass = Commercial", fillcolor="#e58139"] ;
40 -> 41 ;
42 [label="gini = 0.32\nsamples = 12\nvalue = [4, 0, 16]\nclass = Residential", fillcolor="#a06aec"] ;
40 -> 42 ;
43 [label="perimeter <= 52.42\ngini = 0.61\nsamples = 15\nvalue = [3, 10, 9]\nclass = Industrial", fillcolor="#f0fdf5"] ;
1 -> 43 ;
44 [label="pnt_count <= 12.5\ngini = 0.32\nsamples = 5\nvalue = [2, 8, 0]\nclass = Industrial", fillcolor="#6aeca0"] ;
43 -> 44 ;
45 [label="area <= 165.6\ngini = 0.48\nsamples = 3\nvalue = [2, 3, 0]\nclass = Industrial", fillcolor="#bdf6d5"] ;
44 -> 45 ;
46 [label="gini = 0.0\nsamples = 1\nvalue = [2, 0, 0]\nclass = Commercial", fillcolor="#e58139"] ;
45 -> 46 ;
47 [label="gini = 0.0\nsamples = 2\nvalue = [0, 3, 0]\nclass = Industrial", fillcolor="#39e581"] ;
45 -> 47 ;
48 [label="gini = 0.0\nsamples = 2\nvalue = [0, 5, 0]\nclass = Industrial", fillcolor="#39e581"] ;
44 -> 48 ;
49 [label="fractal_dimensions <= 3.18\ngini = 0.4\nsamples = 10\nvalue = [1, 2, 9]\nclass = Residential", fillcolor="#a774ed"] ;
43 -> 49 ;
50 [label="perimeter <= 54.2\ngini = 0.44\nsamples = 2\nvalue = [0, 2, 1]\nclass = Industrial", fillcolor="#9cf2c0"] ;
49 -> 50 ;
51 [label="gini = 0.0\nsamples = 1\nvalue = [0, 2, 0]\nclass = Industrial", fillcolor="#39e581"] ;
50 -> 51 ;
52 [label="gini = 0.0\nsamples = 1\nvalue = [0, 0, 1]\nclass = Residential", fillcolor="#8139e5"] ;
50 -> 52 ;
53 [label="area <= 175.81\ngini = 0.2\nsamples = 8\nvalue = [1, 0, 8]\nclass = Residential", fillcolor="#9152e8"] ;
49 -> 53 ;
54 [label="perimeter <= 53.41\ngini = 0.38\nsamples = 3\nvalue = [1, 0, 3]\nclass = Residential", fillcolor="#ab7bee"] ;
53 -> 54 ;
55 [label="gini = 0.0\nsamples = 2\nvalue = [0, 0, 3]\nclass = Residential", fillcolor="#8139e5"] ;
54 -> 55 ;
56 [label="gini = 0.0\nsamples = 1\nvalue = [1, 0, 0]\nclass = Commercial", fillcolor="#e58139"] ;
54 -> 56 ;
57 [label="gini = 0.0\nsamples = 5\nvalue = [0, 0, 5]\nclass = Residential", fillcolor="#8139e5"] ;
53 -> 57 ;
58 [label="fractal_dimensions <= 17.35\ngini = 0.66\nsamples = 64\nvalue = [39, 32, 26]\nclass = Commercial", fillcolor="#fcf1ea"] ;
0 -> 58 [labeldistance=2.5, labelangle=-45, headlabel="False"] ;
59 [label="fractal_dimensions <= 6.42\ngini = 0.64\nsamples = 58\nvalue = [39, 24, 22]\nclass = Commercial", fillcolor="#f9e0ce"] ;
58 -> 59 ;
60 [label="area <= 564.07\ngini = 0.67\nsamples = 49\nvalue = [25, 24, 22]\nclass = Commercial", fillcolor="#fefcfb"] ;
59 -> 60 ;
61 [label="fractal_dimensions <= 4.55\ngini = 0.66\nsamples = 45\nvalue = [24, 24, 16]\nclass = Commercial", fillcolor="#ffffff"] ;
60 -> 61 ;
62 [label="area <= 204.9\ngini = 0.65\nsamples = 27\nvalue = [15, 9, 16]\nclass = Residential", fillcolor="#faf7fe"] ;
61 -> 62 ;
63 [label="fractal_dimensions <= 2.87\ngini = 0.44\nsamples = 8\nvalue = [10, 3, 1]\nclass = Commercial", fillcolor="#eeaf81"] ;
62 -> 63 ;
64 [label="gini = 0.38\nsamples = 2\nvalue = [0, 3, 1]\nclass = Industrial", fillcolor="#7beeab"] ;
63 -> 64 ;
65 [label="gini = 0.0\nsamples = 6\nvalue = [10, 0, 0]\nclass = Commercial", fillcolor="#e58139"] ;
63 -> 65 ;
66 [label="perimeter <= 94.23\ngini = 0.58\nsamples = 19\nvalue = [5, 6, 15]\nclass = Residential", fillcolor="#c6a6f3"] ;
62 -> 66 ;
67 [label="gini = 0.65\nsamples = 15\nvalue = [5, 6, 8]\nclass = Residential", fillcolor="#ece1fb"] ;
66 -> 67 ;
68 [label="gini = 0.0\nsamples = 4\nvalue = [0, 0, 7]\nclass = Residential", fillcolor="#8139e5"] ;
66 -> 68 ;
69 [label="pnt_count <= 6.0\ngini = 0.47\nsamples = 18\nvalue = [9, 15, 0]\nclass = Industrial", fillcolor="#b0f5cd"] ;
61 -> 69 ;
70 [label="area <= 430.67\ngini = 0.5\nsamples = 11\nvalue = [7, 6, 0]\nclass = Commercial", fillcolor="#fbede3"] ;
69 -> 70 ;
71 [label="gini = 0.28\nsamples = 5\nvalue = [5, 1, 0]\nclass = Commercial", fillcolor="#ea9a61"] ;
70 -> 71 ;
72 [label="gini = 0.41\nsamples = 6\nvalue = [2, 5, 0]\nclass = Industrial", fillcolor="#88efb3"] ;
70 -> 72 ;
73 [label="pnt_count <= 8.5\ngini = 0.3\nsamples = 7\nvalue = [2, 9, 0]\nclass = Industrial", fillcolor="#65eb9d"] ;
69 -> 73 ;
74 [label="gini = 0.0\nsamples = 2\nvalue = [0, 5, 0]\nclass = Industrial", fillcolor="#39e581"] ;
73 -> 74 ;
75 [label="gini = 0.44\nsamples = 5\nvalue = [2, 4, 0]\nclass = Industrial", fillcolor="#9cf2c0"] ;
73 -> 75 ;
76 [label="perimeter <= 113.26\ngini = 0.24\nsamples = 4\nvalue = [1, 0, 6]\nclass = Residential", fillcolor="#965ae9"] ;
60 -> 76 ;
77 [label="gini = 0.0\nsamples = 1\nvalue = [1, 0, 0]\nclass = Commercial", fillcolor="#e58139"] ;
76 -> 77 ;
78 [label="gini = 0.0\nsamples = 3\nvalue = [0, 0, 6]\nclass = Residential", fillcolor="#8139e5"] ;
76 -> 78 ;
79 [label="gini = 0.0\nsamples = 9\nvalue = [14, 0, 0]\nclass = Commercial", fillcolor="#e58139"] ;
59 -> 79 ;
80 [label="pnt_count <= 35.0\ngini = 0.44\nsamples = 6\nvalue = [0, 8, 4]\nclass = Industrial", fillcolor="#9cf2c0"] ;
58 -> 80 ;
81 [label="gini = 0.0\nsamples = 5\nvalue = [0, 8, 0]\nclass = Industrial", fillcolor="#39e581"] ;
80 -> 81 ;
82 [label="gini = 0.0\nsamples = 1\nvalue = [0, 0, 4]\nclass = Residential", fillcolor="#8139e5"] ;
80 -> 82 ;
}